digraph Tree {
node [shape=box] ;
0 [label="CD Account_1 <= 0.5\nentropy = 0.452\nsamples = 2188\nvalue = [3169, 331]\nclass = 0"] ;
1 [label="Income (in K/month) <= 98.5\nentropy = 0.359\nsamples = 2051\nvalue = [3062, 224]\nclass = 0"] ;
0 -> 1 [labeldistance=2.5, labelangle=45, headlabel="True"] ;
2 [label="CCAvg <= 3.05\nentropy = 0.043\nsamples = 1607\nvalue = [2576, 12]\nclass = 0"] ;
1 -> 2 ;
3 [label="entropy = 0.0\nsamples = 1528\nvalue = [2475, 0]\nclass = 0"] ;
2 -> 3 ;
4 [label="Income (in K/month) <= 74.5\nentropy = 0.488\nsamples = 79\nvalue = [101, 12]\nclass = 0"] ;
2 -> 4 ;
5 [label="entropy = 0.0\nsamples = 16\nvalue = [23, 0]\nclass = 0"] ;
4 -> 5 ;
6 [label="Education_2 <= 0.5\nentropy = 0.567\nsamples = 63\nvalue = [78, 12]\nclass = 0"] ;
4 -> 6 ;
7 [label="CreditCard_1 <= 0.5\nentropy = 0.384\nsamples = 57\nvalue = [74, 6]\nclass = 0"] ;
6 -> 7 ;
8 [label="CCAvg <= 3.55\nentropy = 0.439\nsamples = 46\nvalue = [60, 6]\nclass = 0"] ;
7 -> 8 ;
9 [label="Securities Account_1 <= 0.5\nentropy = 0.985\nsamples = 10\nvalue = [8, 6]\nclass = 0"] ;
8 -> 9 ;
10 [label="Mortgage <= 89.0\nentropy = 0.994\nsamples = 8\nvalue = [5, 6]\nclass = 1"] ;
9 -> 10 ;
11 [label="entropy = 0.918\nsamples = 6\nvalue = [3, 6]\nclass = 1"] ;
10 -> 11 ;
12 [label="entropy = 0.0\nsamples = 2\nvalue = [2, 0]\nclass = 0"] ;
10 -> 12 ;
13 [label="entropy = 0.0\nsamples = 2\nvalue = [3, 0]\nclass = 0"] ;
9 -> 13 ;
14 [label="entropy = 0.0\nsamples = 36\nvalue = [52, 0]\nclass = 0"] ;
8 -> 14 ;
15 [label="entropy = 0.0\nsamples = 11\nvalue = [14, 0]\nclass = 0"] ;
7 -> 15 ;
16 [label="Online_1 <= 0.5\nentropy = 0.971\nsamples = 6\nvalue = [4, 6]\nclass = 1"] ;
6 -> 16 ;
17 [label="CCAvg <= 3.6\nentropy = 0.722\nsamples = 3\nvalue = [1, 4]\nclass = 1"] ;
16 -> 17 ;
18 [label="entropy = 0.0\nsamples = 1\nvalue = [0, 3]\nclass = 1"] ;
17 -> 18 ;
19 [label="Age (in years) <= 49.5\nentropy = 1.0\nsamples = 2\nvalue = [1, 1]\nclass = 0"] ;
17 -> 19 ;
20 [label="entropy = 0.0\nsamples = 1\nvalue = [0, 1]\nclass = 1"] ;
19 -> 20 ;
21 [label="entropy = 0.0\nsamples = 1\nvalue = [1, 0]\nclass = 0"] ;
19 -> 21 ;
22 [label="Family members <= 3.5\nentropy = 0.971\nsamples = 3\nvalue = [3, 2]\nclass = 0"] ;
16 -> 22 ;
23 [label="entropy = 0.0\nsamples = 2\nvalue = [0, 2]\nclass = 1"] ;
22 -> 23 ;
24 [label="entropy = 0.0\nsamples = 1\nvalue = [3, 0]\nclass = 0"] ;
22 -> 24 ;
25 [label="Education_3 <= 0.5\nentropy = 0.886\nsamples = 444\nvalue = [486, 212]\nclass = 0"] ;
1 -> 25 ;
26 [label="Education_2 <= 0.5\nentropy = 0.702\nsamples = 357\nvalue = [460, 108]\nclass = 0"] ;
25 -> 26 ;
27 [label="Family members <= 2.5\nentropy = 0.388\nsamples = 280\nvalue = [414, 34]\nclass = 0"] ;
26 -> 27 ;
28 [label="Experience (in years) <= 33.5\nentropy = 0.025\nsamples = 251\nvalue = [403, 1]\nclass = 0"] ;
27 -> 28 ;
29 [label="entropy = 0.0\nsamples = 208\nvalue = [335, 0]\nclass = 0"] ;
28 -> 29 ;
30 [label="Experience (in years) <= 34.5\nentropy = 0.109\nsamples = 43\nvalue = [68, 1]\nclass = 0"] ;
28 -> 30 ;
31 [label="Online_1 <= 0.5\nentropy = 0.722\nsamples = 4\nvalue = [4, 1]\nclass = 0"] ;
30 -> 31 ;
32 [label="entropy = 0.0\nsamples = 1\nvalue = [0, 1]\nclass = 1"] ;
31 -> 32 ;
33 [label="entropy = 0.0\nsamples = 3\nvalue = [4, 0]\nclass = 0"] ;
31 -> 33 ;
34 [label="entropy = 0.0\nsamples = 39\nvalue = [64, 0]\nclass = 0"] ;
30 -> 34 ;
35 [label="Income (in K/month) <= 113.5\nentropy = 0.811\nsamples = 29\nvalue = [11, 33]\nclass = 1"] ;
27 -> 35 ;
36 [label="CreditCard_1 <= 0.5\nentropy = 0.837\nsamples = 9\nvalue = [11, 4]\nclass = 0"] ;
35 -> 36 ;
37 [label="Income (in K/month) <= 102.0\nentropy = 0.946\nsamples = 7\nvalue = [7, 4]\nclass = 0"] ;
36 -> 37 ;
38 [label="entropy = 0.0\nsamples = 1\nvalue = [3, 0]\nclass = 0"] ;
37 -> 38 ;
39 [label="Mortgage <= 121.0\nentropy = 1.0\nsamples = 6\nvalue = [4, 4]\nclass = 0"] ;
37 -> 39 ;
40 [label="entropy = 0.0\nsamples = 3\nvalue = [0, 4]\nclass = 1"] ;
39 -> 40 ;
41 [label="entropy = 0.0\nsamples = 3\nvalue = [4, 0]\nclass = 0"] ;
39 -> 41 ;
42 [label="entropy = 0.0\nsamples = 2\nvalue = [4, 0]\nclass = 0"] ;
36 -> 42 ;
43 [label="entropy = 0.0\nsamples = 20\nvalue = [0, 29]\nclass = 1"] ;
35 -> 43 ;
44 [label="Experience (in years) <= 4.5\nentropy = 0.96\nsamples = 77\nvalue = [46, 74]\nclass = 1"] ;
26 -> 44 ;
45 [label="entropy = 0.0\nsamples = 10\nvalue = [0, 14]\nclass = 1"] ;
44 -> 45 ;
46 [label="Income (in K/month) <= 118.5\nentropy = 0.987\nsamples = 67\nvalue = [46, 60]\nclass = 1"] ;
44 -> 46 ;
47 [label="CCAvg <= 2.8\nentropy = 0.677\nsamples = 36\nvalue = [46, 10]\nclass = 0"] ;
46 -> 47 ;
48 [label="Family members <= 3.5\nentropy = 0.162\nsamples = 28\nvalue = [41, 1]\nclass = 0"] ;
47 -> 48 ;
49 [label="entropy = 0.0\nsamples = 20\nvalue = [29, 0]\nclass = 0"] ;
48 -> 49 ;
50 [label="CCAvg <= 1.85\nentropy = 0.391\nsamples = 8\nvalue = [12, 1]\nclass = 0"] ;
48 -> 50 ;
51 [label="entropy = 0.0\nsamples = 4\nvalue = [6, 0]\nclass = 0"] ;
50 -> 51 ;
52 [label="entropy = 0.592\nsamples = 4\nvalue = [6, 1]\nclass = 0"] ;
50 -> 52 ;
53 [label="Online_1 <= 0.5\nentropy = 0.94\nsamples = 8\nvalue = [5, 9]\nclass = 1"] ;
47 -> 53 ;
54 [label="CCAvg <= 3.535\nentropy = 0.985\nsamples = 4\nvalue = [3, 4]\nclass = 1"] ;
53 -> 54 ;
55 [label="entropy = 0.0\nsamples = 1\nvalue = [3, 0]\nclass = 0"] ;
54 -> 55 ;
56 [label="entropy = 0.0\nsamples = 3\nvalue = [0, 4]\nclass = 1"] ;
54 -> 56 ;
57 [label="Income (in K/month) <= 114.5\nentropy = 0.863\nsamples = 4\nvalue = [2, 5]\nclass = 1"] ;
53 -> 57 ;
58 [label="entropy = 0.0\nsamples = 2\nvalue = [0, 2]\nclass = 1"] ;
57 -> 58 ;
59 [label="entropy = 0.971\nsamples = 2\nvalue = [2, 3]\nclass = 1"] ;
57 -> 59 ;
60 [label="entropy = 0.0\nsamples = 31\nvalue = [0, 50]\nclass = 1"] ;
46 -> 60 ;
61 [label="Experience (in years) <= 2.5\nentropy = 0.722\nsamples = 87\nvalue = [26, 104]\nclass = 1"] ;
25 -> 61 ;
62 [label="Online_1 <= 0.5\nentropy = 0.684\nsamples = 8\nvalue = [9, 2]\nclass = 0"] ;
61 -> 62 ;
63 [label="CCAvg <= 4.4\nentropy = 0.918\nsamples = 5\nvalue = [4, 2]\nclass = 0"] ;
62 -> 63 ;
64 [label="entropy = 0.0\nsamples = 3\nvalue = [4, 0]\nclass = 0"] ;
63 -> 64 ;
65 [label="entropy = 0.0\nsamples = 2\nvalue = [0, 2]\nclass = 1"] ;
63 -> 65 ;
66 [label="entropy = 0.0\nsamples = 3\nvalue = [5, 0]\nclass = 0"] ;
62 -> 66 ;
67 [label="Mortgage <= 152.5\nentropy = 0.592\nsamples = 79\nvalue = [17, 102]\nclass = 1"] ;
61 -> 67 ;
68 [label="Securities Account_1 <= 0.5\nentropy = 0.455\nsamples = 58\nvalue = [9, 85]\nclass = 1"] ;
67 -> 68 ;
69 [label="Income (in K/month) <= 114.5\nentropy = 0.439\nsamples = 54\nvalue = [8, 80]\nclass = 1"] ;
68 -> 69 ;
70 [label="Family members <= 1.5\nentropy = 0.946\nsamples = 15\nvalue = [8, 14]\nclass = 1"] ;
69 -> 70 ;
71 [label="Age (in years) <= 51.0\nentropy = 0.918\nsamples = 6\nvalue = [6, 3]\nclass = 0"] ;
70 -> 71 ;
72 [label="entropy = 0.811\nsamples = 2\nvalue = [1, 3]\nclass = 1"] ;
71 -> 72 ;
73 [label="entropy = 0.0\nsamples = 4\nvalue = [5, 0]\nclass = 0"] ;
71 -> 73 ;
74 [label="Age (in years) <= 59.5\nentropy = 0.619\nsamples = 9\nvalue = [2, 11]\nclass = 1"] ;
70 -> 74 ;
75 [label="entropy = 0.0\nsamples = 7\nvalue = [0, 11]\nclass = 1"] ;
74 -> 75 ;
76 [label="entropy = 0.0\nsamples = 2\nvalue = [2, 0]\nclass = 0"] ;
74 -> 76 ;
77 [label="entropy = 0.0\nsamples = 39\nvalue = [0, 66]\nclass = 1"] ;
69 -> 77 ;
78 [label="Online_1 <= 0.5\nentropy = 0.65\nsamples = 4\nvalue = [1, 5]\nclass = 1"] ;
68 -> 78 ;
79 [label="entropy = 0.0\nsamples = 3\nvalue = [0, 5]\nclass = 1"] ;
78 -> 79 ;
80 [label="entropy = 0.0\nsamples = 1\nvalue = [1, 0]\nclass = 0"] ;
78 -> 80 ;
81 [label="Mortgage <= 191.5\nentropy = 0.904\nsamples = 21\nvalue = [8, 17]\nclass = 1"] ;
67 -> 81 ;
82 [label="entropy = 0.0\nsamples = 2\nvalue = [4, 0]\nclass = 0"] ;
81 -> 82 ;
83 [label="Income (in K/month) <= 100.5\nentropy = 0.702\nsamples = 19\nvalue = [4, 17]\nclass = 1"] ;
81 -> 83 ;
84 [label="Age (in years) <= 40.5\nentropy = 0.722\nsamples = 4\nvalue = [4, 1]\nclass = 0"] ;
83 -> 84 ;
85 [label="entropy = 0.0\nsamples = 3\nvalue = [4, 0]\nclass = 0"] ;
84 -> 85 ;
86 [label="entropy = 0.0\nsamples = 1\nvalue = [0, 1]\nclass = 1"] ;
84 -> 86 ;
87 [label="entropy = 0.0\nsamples = 15\nvalue = [0, 16]\nclass = 1"] ;
83 -> 87 ;
88 [label="Securities Account_1 <= 0.5\nentropy = 1.0\nsamples = 137\nvalue = [107, 107]\nclass = 0"] ;
0 -> 88 [labeldistance=2.5, labelangle=-45, headlabel="False"] ;
89 [label="Age (in years) <= 35.5\nentropy = 0.937\nsamples = 69\nvalue = [41, 75]\nclass = 1"] ;
88 -> 89 ;
90 [label="Family members <= 2.5\nentropy = 0.902\nsamples = 14\nvalue = [15, 7]\nclass = 0"] ;
89 -> 90 ;
91 [label="Income (in K/month) <= 188.0\nentropy = 0.65\nsamples = 7\nvalue = [10, 2]\nclass = 0"] ;
90 -> 91 ;
92 [label="Experience (in years) <= 8.5\nentropy = 0.439\nsamples = 6\nvalue = [10, 1]\nclass = 0"] ;
91 -> 92 ;
93 [label="entropy = 0.0\nsamples = 4\nvalue = [9, 0]\nclass = 0"] ;
92 -> 93 ;
94 [label="Income (in K/month) <= 110.5\nentropy = 1.0\nsamples = 2\nvalue = [1, 1]\nclass = 0"] ;
92 -> 94 ;
95 [label="entropy = 0.0\nsamples = 1\nvalue = [1, 0]\nclass = 0"] ;
94 -> 95 ;
96 [label="entropy = 0.0\nsamples = 1\nvalue = [0, 1]\nclass = 1"] ;
94 -> 96 ;
97 [label="entropy = 0.0\nsamples = 1\nvalue = [0, 1]\nclass = 1"] ;
91 -> 97 ;
98 [label="CreditCard_1 <= 0.5\nentropy = 1.0\nsamples = 7\nvalue = [5, 5]\nclass = 0"] ;
90 -> 98 ;
99 [label="entropy = 0.0\nsamples = 1\nvalue = [0, 1]\nclass = 1"] ;
98 -> 99 ;
100 [label="CCAvg <= 3.05\nentropy = 0.991\nsamples = 6\nvalue = [5, 4]\nclass = 0"] ;
98 -> 100 ;
101 [label="entropy = 0.0\nsamples = 4\nvalue = [5, 0]\nclass = 0"] ;
100 -> 101 ;
102 [label="entropy = 0.0\nsamples = 2\nvalue = [0, 4]\nclass = 1"] ;
100 -> 102 ;
103 [label="Family members <= 2.5\nentropy = 0.851\nsamples = 55\nvalue = [26, 68]\nclass = 1"] ;
89 -> 103 ;
104 [label="Experience (in years) <= 13.5\nentropy = 0.956\nsamples = 27\nvalue = [20, 33]\nclass = 1"] ;
103 -> 104 ;
105 [label="entropy = 0.0\nsamples = 5\nvalue = [0, 11]\nclass = 1"] ;
104 -> 105 ;
106 [label="CCAvg <= 2.95\nentropy = 0.998\nsamples = 22\nvalue = [20, 22]\nclass = 1"] ;
104 -> 106 ;
107 [label="Mortgage <= 282.5\nentropy = 0.755\nsamples = 12\nvalue = [18, 5]\nclass = 0"] ;
106 -> 107 ;
108 [label="Experience (in years) <= 38.5\nentropy = 0.629\nsamples = 10\nvalue = [16, 3]\nclass = 0"] ;
107 -> 108 ;
109 [label="entropy = 0.0\nsamples = 9\nvalue = [16, 0]\nclass = 0"] ;
108 -> 109 ;
110 [label="entropy = 0.0\nsamples = 1\nvalue = [0, 3]\nclass = 1"] ;
108 -> 110 ;
111 [label="Family members <= 1.5\nentropy = 1.0\nsamples = 2\nvalue = [2, 2]\nclass = 0"] ;
107 -> 111 ;
112 [label="entropy = 0.0\nsamples = 1\nvalue = [2, 0]\nclass = 0"] ;
111 -> 112 ;
113 [label="entropy = 0.0\nsamples = 1\nvalue = [0, 2]\nclass = 1"] ;
111 -> 113 ;
114 [label="Education_3 <= 0.5\nentropy = 0.485\nsamples = 10\nvalue = [2, 17]\nclass = 1"] ;
106 -> 114 ;
115 [label="Education_2 <= 0.5\nentropy = 0.863\nsamples = 5\nvalue = [2, 5]\nclass = 1"] ;
114 -> 115 ;
116 [label="entropy = 0.0\nsamples = 2\nvalue = [2, 0]\nclass = 0"] ;
115 -> 116 ;
117 [label="entropy = 0.0\nsamples = 3\nvalue = [0, 5]\nclass = 1"] ;
115 -> 117 ;
118 [label="entropy = 0.0\nsamples = 5\nvalue = [0, 12]\nclass = 1"] ;
114 -> 118 ;
119 [label="CCAvg <= 2.75\nentropy = 0.601\nsamples = 28\nvalue = [6, 35]\nclass = 1"] ;
103 -> 119 ;
120 [label="Mortgage <= 225.0\nentropy = 0.881\nsamples = 15\nvalue = [6, 14]\nclass = 1"] ;
119 -> 120 ;
121 [label="CreditCard_1 <= 0.5\nentropy = 0.996\nsamples = 11\nvalue = [6, 7]\nclass = 1"] ;
120 -> 121 ;
122 [label="entropy = 0.0\nsamples = 2\nvalue = [0, 4]\nclass = 1"] ;
121 -> 122 ;
123 [label="Experience (in years) <= 13.5\nentropy = 0.918\nsamples = 9\nvalue = [6, 3]\nclass = 0"] ;
121 -> 123 ;
124 [label="entropy = 0.0\nsamples = 1\nvalue = [0, 1]\nclass = 1"] ;
123 -> 124 ;
125 [label="Age (in years) <= 62.5\nentropy = 0.811\nsamples = 8\nvalue = [6, 2]\nclass = 0"] ;
123 -> 125 ;
126 [label="entropy = 0.918\nsamples = 6\nvalue = [4, 2]\nclass = 0"] ;
125 -> 126 ;
127 [label="entropy = 0.0\nsamples = 2\nvalue = [2, 0]\nclass = 0"] ;
125 -> 127 ;
128 [label="entropy = 0.0\nsamples = 4\nvalue = [0, 7]\nclass = 1"] ;
120 -> 128 ;
129 [label="entropy = 0.0\nsamples = 13\nvalue = [0, 21]\nclass = 1"] ;
119 -> 129 ;
130 [label="CCAvg <= 2.65\nentropy = 0.911\nsamples = 68\nvalue = [66, 32]\nclass = 0"] ;
88 -> 130 ;
131 [label="Family members <= 3.5\nentropy = 0.294\nsamples = 42\nvalue = [55, 3]\nclass = 0"] ;
130 -> 131 ;
132 [label="entropy = 0.0\nsamples = 29\nvalue = [42, 0]\nclass = 0"] ;
131 -> 132 ;
133 [label="CCAvg <= 1.15\nentropy = 0.696\nsamples = 13\nvalue = [13, 3]\nclass = 0"] ;
131 -> 133 ;
134 [label="Mortgage <= 148.0\nentropy = 0.918\nsamples = 7\nvalue = [6, 3]\nclass = 0"] ;
133 -> 134 ;
135 [label="Income (in K/month) <= 118.0\nentropy = 0.592\nsamples = 5\nvalue = [6, 1]\nclass = 0"] ;
134 -> 135 ;
136 [label="entropy = 0.0\nsamples = 4\nvalue = [6, 0]\nclass = 0"] ;
135 -> 136 ;
137 [label="entropy = 0.0\nsamples = 1\nvalue = [0, 1]\nclass = 1"] ;
135 -> 137 ;
138 [label="entropy = 0.0\nsamples = 2\nvalue = [0, 2]\nclass = 1"] ;
134 -> 138 ;
139 [label="entropy = 0.0\nsamples = 6\nvalue = [7, 0]\nclass = 0"] ;
133 -> 139 ;
140 [label="Family members <= 2.5\nentropy = 0.849\nsamples = 26\nvalue = [11, 29]\nclass = 1"] ;
130 -> 140 ;
141 [label="Education_2 <= 0.5\nentropy = 0.995\nsamples = 16\nvalue = [11, 13]\nclass = 1"] ;
140 -> 141 ;
142 [label="Income (in K/month) <= 165.0\nentropy = 0.837\nsamples = 11\nvalue = [11, 4]\nclass = 0"] ;
141 -> 142 ;
143 [label="Family members <= 1.5\nentropy = 0.619\nsamples = 9\nvalue = [11, 2]\nclass = 0"] ;
142 -> 143 ;
144 [label="Experience (in years) <= 18.0\nentropy = 0.918\nsamples = 4\nvalue = [4, 2]\nclass = 0"] ;
143 -> 144 ;
145 [label="entropy = 0.0\nsamples = 1\nvalue = [2, 0]\nclass = 0"] ;
144 -> 145 ;
146 [label="Education_3 <= 0.5\nentropy = 1.0\nsamples = 3\nvalue = [2, 2]\nclass = 0"] ;
144 -> 146 ;
147 [label="entropy = 0.918\nsamples = 2\nvalue = [2, 1]\nclass = 0"] ;
146 -> 147 ;
148 [label="entropy = 0.0\nsamples = 1\nvalue = [0, 1]\nclass = 1"] ;
146 -> 148 ;
149 [label="entropy = 0.0\nsamples = 5\nvalue = [7, 0]\nclass = 0"] ;
143 -> 149 ;
150 [label="entropy = 0.0\nsamples = 2\nvalue = [0, 2]\nclass = 1"] ;
142 -> 150 ;
151 [label="entropy = 0.0\nsamples = 5\nvalue = [0, 9]\nclass = 1"] ;
141 -> 151 ;
152 [label="entropy = 0.0\nsamples = 10\nvalue = [0, 16]\nclass = 1"] ;
140 -> 152 ;
}